{"learner":{"attributes":{"scikit_learn":"{\"_estimator_type\": \"regressor\"}"},"feature_names":["0","1","2","3","4","5","6","7","8","9"],"feature_types":["float","float","float","float","float","float","float","float","float","float"],"gradient_booster":{"model":{"gbtree_model_param":{"num_parallel_tree":"1","num_trees":"10"},"iteration_indptr":[0,1,2,3,4,5,6,7,8,9,10],"tree_info":[0,0,0,0,0,0,0,0,0,0],"trees":[{"base_weights":[-0E0,-4.7987464E-1,2.9382202E-1,-2.0274574E-1,-3.5307221E0,1.5819232E-1,-2.9812518E-3,-6.5585905E-1,4.262885E-1,-3.7916133E-1,-0E0,-8.8307273E-1,-0E0,1.1439534E0,-0E0,-1.2544633E-1,-2.207349E-2,1.13437595E-2,-4.083675E-2,-0E0,1.884208E-1,-5.8088124E-2,1.6919927E-1],"categories":[],"categories_nodes":[],"categories_segments":[],"categories_sizes":[],"default_left":[0,1,0,0,0,0,0,0,0,0,0,0,0,0,1,0,0,0,0,0,0,0,0],"id":0,"left_children":[1,3,5,7,9,-1,-1,11,13,-1,-1,15,17,19,21,-1,-1,-1,-1,-1,-1,-1,-1],"loss_changes":[1.07299225E2,2.0629263E2,2.1233282E2,7.924668E1,1.1364319E1,0E0,0E0,2.2173012E1,3.2137478E1,0E0,0E0,1.4489433E1,3.0800033E0,2.7068726E1,6.553942E1,0E0,0E0,0E0,0E0,0E0,0E0,0E0,0E0],"parents":[2147483647,0,0,1,1,2,2,3,3,4,4,7,7,8,8,11,11,12,12,13,13,14,14],"right_children":[2,4,6,8,10,-1,-1,12,14,-1,-1,16,18,20,22,-1,-1,-1,-1,-1,-1,-1,-1],"split_conditions":[3.47428E0,6.47E-1,8.71E-1,5.15E-1,3.1636E0,1.5819232E-1,-2.9812518E-3,1.4231E-1,5.44E-1,-3.7916133E-1,-0E0,4.45E-1,5.04E-1,2.2876E-1,6.09E-1,-1.2544633E-1,-2.207349E-2,1.13437595E-2,-4.083675E-2,-0E0,1.884208E-1,-5.8088124E-2,1.6919927E-1],"split_indices":[0,4,4,4,0,0,0,0,4,0,0,4,4,0,4,0,0,0,0,0,0,0,0],"split_type":[0,0,0,0,0,0,0,0,0,0,0,0,0,0,0,0,0,0,0,0,0,0,0],"sum_hessian":[7.59E2,2.88E2,4.71E2,2.68E2,2E1,1E2,3.71E2,1.65E2,1.03E2,1.8E1,2E0,1.19E2,4.6E1,3.8E1,6.5E1,6.6E1,5.3E1,3.1E1,1.5E1,1.7E1,2.1E1,4.9E1,1.6E1],"tree_param":{"num_deleted":"0","num_feature":"10","num_nodes":"23","size_leaf_vector":"1"}},{"base_weights":[-0E0,4.928448E-1,-3.076867E-1,-0E0,1.3603113E0,-1.3011445E0,-1.6372988E-2,2.534533E-1,-1.5501365E-1,1.3740765E-1,-0E0,-2.8247058E-1,-7.265357E-1,-0E0,-1.6597882E-3,-0E0,5.612565E-1,-0E0,-1.2432262E0,-0E0,-1.3277552E-2,6.972659E-2,-0E0,-0E0,1.863143E-2,-0E0,-1.2898827E-1],"categories":[],"categories_nodes":[],"categories_segments":[],"categories_sizes":[],"default_left":[0,0,0,0,0,0,0,0,0,0,0,0,0,0,0,0,0,0,0,0,0,0,0,0,0,0,0],"id":1,"left_children":[1,3,5,7,9,11,13,15,-1,-1,-1,-1,17,-1,-1,19,21,23,25,-1,-1,-1,-1,-1,-1,-1,-1],"loss_changes":[1.1502992E2,1.2015617E2,1.23114624E2,7.06082E1,1.9887848E0,4.9105057E1,1.9393191E-3,1.8130684E1,0E0,0E0,0E0,0E0,3.9199165E1,0E0,0E0,8.990962E-1,1.2173281E1,7.983994E-1,2.8180923E0,0E0,0E0,0E0,0E0,0E0,0E0,0E0,0E0],"parents":[2147483647,0,0,1,1,2,2,3,3,4,4,5,5,6,6,7,7,12,12,15,15,16,16,17,17,18,18],"right_children":[2,4,6,8,10,12,14,16,-1,-1,-1,-1,18,-1,-1,20,22,24,26,-1,-1,-1,-1,-1,-1,-1,-1],"split_conditions":[1.98E0,3.47428E0,2.00001E0,1.38799E0,9.673E1,2.008E1,2.77974E0,1.4476E-1,-1.5501365E-1,1.3740765E-1,-0E0,-2.8247058E-1,2.828E1,-0E0,-1.6597882E-3,6.417E-2,1E0,2.108E1,1.381E-2,-0E0,-1.3277552E-2,6.972659E-2,-0E0,-0E0,1.863143E-2,-0E0,-1.2898827E-1],"split_indices":[1,0,3,0,0,1,0,0,0,0,0,0,1,0,0,0,3,1,0,0,0,0,0,0,0,0,0],"split_type":[0,0,0,0,0,0,0,0,0,0,0,0,0,0,0,0,0,0,0,0,0,0,0,0,0,0,0],"sum_hessian":[7.59E2,2.89E2,4.7E2,1.87E2,1.02E2,9.8E1,3.72E2,1.63E2,2.4E1,1.01E2,1E0,2.1E1,7.7E1,3E0,3.69E2,7.3E1,9E1,2.6E1,5.1E1,2.3E1,5E1,8.3E1,7E0,4E0,2.2E1,2E0,4.9E1],"tree_param":{"num_deleted":"0","num_feature":"10","num_nodes":"27","size_leaf_vector":"1"}},{"base_weights":[-0E0,-2.1379645E-1,1.3042527E-1,9.200298E-3,-1.1087859E0,7.532795E-1,-1.1350923E-1,-2.8932104E0,-5.264298E-1,-0E0,1.1151661E0,-9.344987E-1,-0E0,-2.9712215E-1,-0E0,-1.0174314E-1,-9.2482036E-1,1.04811145E-2,-2.2809755E-3,1.268525E-1,-0E0,-0E0,-1.3474756E-1,1.313235E-3,-1.4808961E-3,-3.9601825E-2,3.262995E-2,-2.0748793E-1,-0E0],"categories":[],"categories_nodes":[],"categories_segments":[],"categories_sizes":[],"default_left":[1,1,0,0,0,0,0,0,0,0,0,0,0,0,0,0,0,0,0,0,0,0,0,0,0,0,0,0,0],"id":2,"left_children":[1,3,-1,5,7,9,11,13,15,17,19,21,23,-1,-1,25,27,-1,-1,-1,-1,-1,-1,-1,-1,-1,-1,-1,-1],"loss_changes":[2.069426E2,1.4212994E2,0E0,5.3779514E1,1.09764404E2,2.2653378E1,3.5452724E1,4.89653E0,8.420492E0,1.09794356E-1,1.2791168E1,1.3426189E1,8.4607065E-2,0E0,0E0,9.265882E0,6.052968E1,0E0,0E0,0E0,0E0,0E0,0E0,0E0,0E0,0E0,0E0,0E0,0E0],"parents":[2147483647,0,0,1,1,3,3,4,4,5,5,6,6,7,7,8,8,9,9,10,10,11,11,12,12,15,15,16,16],"right_children":[2,4,-1,6,8,10,12,14,16,18,20,22,24,-1,-1,26,28,-1,-1,-1,-1,-1,-1,-1,-1,-1,-1,-1,-1],"split_conditions":[2.4E1,5E0,1.3042527E-1,4.7211E0,2.3158E0,4E0,7.3172E0,6E0,1.98E0,2.5052E0,1.98E0,5.4159E0,1.21265E1,-2.9712215E-1,-0E0,4.175E0,7E0,1.04811145E-2,-2.2809755E-3,1.268525E-1,-0E0,-0E0,-1.3474756E-1,1.313235E-3,-1.4808961E-3,-3.9601825E-2,3.262995E-2,-2.0748793E-1,-0E0],"split_indices":[8,8,0,7,7,8,7,8,1,7,1,7,7,0,0,7,8,0,0,0,0,0,0,0,0,0,0,0,0],"split_type":[0,0,0,0,0,0,0,0,0,0,0,0,0,0,0,0,0,0,0,0,0,0,0,0,0,0,0,0,0],"sum_hessian":[7.59E2,6.56E2,1.03E2,5.17E2,1.39E2,8.4E1,4.33E2,2.9E1,1.1E2,2.8E1,5.6E1,4.6E1,3.87E2,2.8E1,1E0,6.6E1,4.4E1,8E0,2E1,5.1E1,5E0,1.7E1,2.9E1,1.4E1,3.73E2,5.3E1,1.3E1,2.2E1,2.2E1],"tree_param":{"num_deleted":"0","num_feature":"10","num_nodes":"29","size_leaf_vector":"1"}},{"base_weights":[-0E0,-2.561136E-1,1.3070217E-1,-9.797061E-2,-3.1350887E-1,-1.0797076E0,5.867503E-4,-1.1155988E0,-0E0,-6.6367306E-2,5.821082E-1,-0E0,-1.13279976E-1,-0E0,-4.6333585E-2,1.0796576E-1,-0E0],"categories":[],"categories_nodes":[],"categories_segments":[],"categories_sizes":[],"default_left":[1,1,0,0,0,0,1,0,0,1,0,0,0,0,0,0,0],"id":3,"left_children":[1,3,-1,5,-1,7,9,11,-1,13,15,-1,-1,-1,-1,-1,-1],"loss_changes":[2.4868523E2,2.5874765E2,0E0,6.991063E1,0E0,2.6323547E0,2.6493607E1,1.1532669E0,0E0,7.9933662E0,2.5726198E1,0E0,0E0,0E0,0E0,0E0,0E0],"parents":[2147483647,0,0,1,1,3,3,5,5,6,6,7,7,9,9,10,10],"right_children":[2,4,-1,6,-1,8,10,12,-1,14,16,-1,-1,-1,-1,-1,-1],"split_conditions":[4.37E2,6.05E-1,1.3070217E-1,4.49E0,-3.1350887E-1,4.03E2,5.15E-1,3.92E-1,-0E0,2.89E2,9.9E0,-0E0,-1.13279976E-1,-0E0,-4.6333585E-2,1.0796576E-1,-0E0],"split_indices":[9,4,0,2,0,9,4,4,0,9,2,0,0,0,0,0,0],"split_type":[0,0,0,0,0,0,0,0,0,0,0,0,0,0,0,0,0],"sum_hessian":[7.59E2,6.39E2,1.2E2,6.1E2,2.9E1,6.4E1,5.46E2,6.2E1,2E0,4.75E2,7.1E1,1E0,6.1E1,4.29E2,4.6E1,4.2E1,2.9E1],"tree_param":{"num_deleted":"0","num_feature":"10","num_nodes":"17","size_leaf_vector":"1"}},{"base_weights":[-0E0,1.1764651E-1,-1.2734658E0,-5.7571854E-2,5.9483343E-1,-1.5850118E0,-0E0,-0E0,-2.5354308E-1,8.076915E-1,-1.776322E-1,-1.0336201E0,-2.8145945E-1,1.3484688E-1,-2.026404E-2,-4.110936E-1,-0E0,-0E0,1.01632036E-1,-1.6766346E0,-1.1137172E-1,-0E0,3.6091827E-2,-2.983168E-3,-0E0,-4.4351578E-2,-0E0,1.00897506E-1,-1.6583214E-2,-1.780759E-1,-0E0,-2.0976879E-2,-0E0],"categories":[],"categories_nodes":[],"categories_segments":[],"categories_sizes":[],"default_left":[1,1,0,1,0,0,0,0,0,0,0,0,0,0,1,0,0,0,0,0,0,0,0,0,0,0,0,0,0,0,0,0,0],"id":4,"left_children":[1,3,5,7,9,11,-1,13,15,17,-1,19,-1,21,23,25,-1,27,-1,29,31,-1,-1,-1,-1,-1,-1,-1,-1,-1,-1,-1,-1],"loss_changes":[1.23083984E2,6.318269E1,4.224021E1,3.836719E0,9.319707E1,6.4349365E-1,0E0,3.4526807E-1,4.506731E0,2.5441498E1,0E0,1.1584164E1,0E0,9.905211E-1,1.8008135E-1,6.5125847E-1,0E0,1.3178877E1,0E0,5.1088715E0,8.407771E-1,0E0,0E0,0E0,0E0,0E0,0E0,0E0,0E0,0E0,0E0,0E0,0E0],"parents":[2147483647,0,0,1,1,2,2,3,3,4,4,5,5,7,7,8,8,9,9,11,11,13,13,14,14,15,15,17,17,19,19,20,20],"right_children":[2,4,6,8,10,12,-1,14,16,18,-1,20,-1,22,24,26,-1,28,-1,30,32,-1,-1,-1,-1,-1,-1,-1,-1,-1,-1,-1,-1],"split_conditions":[6.8E0,5.15E-1,2.33099E0,5.981E0,8.71E-1,5.75E-1,-0E0,4.33E-1,1.3117E-1,2.2876E-1,-1.776322E-1,4.45E-1,-2.8145945E-1,4E-1,5.841E0,6.701E0,-0E0,5.24E-1,1.01632036E-1,1.1504E-1,5.15E-1,-0E0,3.6091827E-2,-2.983168E-3,-0E0,-4.4351578E-2,-0E0,1.00897506E-1,-1.6583214E-2,-1.780759E-1,-0E0,-2.0976879E-2,-0E0],"split_indices":[5,4,0,5,4,4,0,4,0,0,0,4,0,4,5,5,0,4,0,0,4,0,0,0,0,0,0,0,0,0,0,0,0],"split_type":[0,0,0,0,0,0,0,0,0,0,0,0,0,0,0,0,0,0,0,0,0,0,0,0,0,0,0,0,0,0,0,0,0],"sum_hessian":[7.59E2,6.9E2,6.9E1,4.9E2,2E2,6.1E1,8E0,4.06E2,8.4E1,1.88E2,1.2E1,4.9E1,1.2E1,9E0,3.97E2,5.8E1,2.6E1,4.5E1,1.43E2,2.2E1,2.7E1,1E0,8E0,3.85E2,1.2E1,5.3E1,5E0,1.1E1,3.4E1,2.1E1,1E0,2.6E1,1E0],"tree_param":{"num_deleted":"0","num_feature":"10","num_nodes":"33","size_leaf_vector":"1"}},{"base_weights":[-0E0,-1.5769714E-1,3.3817586E-1,-5.615602E-1,-0E0,5.049317E-1,-1.6123545E-1,-1.0018691E0,-1.5594819E-1,-2.3779286E-2,4.016777E-2,5.8381283E-1,-4.3745247E-1,-0E0,-1.3389587E0,-0E0,-6.9776915E-2,-0E0,-2.3931514E-3,1.3772966E-1,3.460586E-1,-0E0,-7.5306974E-2,-7.2264276E-3,-0E0,-1.648711E-1,-0E0,-0E0,2.731585E-4,-0E0,9.031603E-2],"categories":[],"categories_nodes":[],"categories_segments":[],"categories_sizes":[],"default_left":[1,0,0,0,1,0,0,0,0,0,0,0,0,0,0,0,0,0,0,0,0,0,0,0,0,0,0,0,0,0,0],"id":5,"left_children":[1,3,5,7,9,11,-1,13,15,17,-1,19,21,23,25,27,-1,-1,-1,-1,29,-1,-1,-1,-1,-1,-1,-1,-1,-1,-1],"loss_changes":[3.8792625E1,3.2637024E1,6.1948128E1,1.4340393E1,2.6350472E0,1.7329624E1,0E0,1.1702606E1,8.546931E0,1.6144514E-3,0E0,2.0775269E1,2.0631313E0,6.26655E-2,8.909569E0,3.805394E-4,0E0,0E0,0E0,0E0,4.024259E1,0E0,0E0,0E0,0E0,0E0,0E0,0E0,0E0,0E0,0E0],"parents":[2147483647,0,0,1,1,2,2,3,3,4,4,5,5,7,7,8,8,9,9,11,11,12,12,13,13,14,14,15,15,20,20],"right_children":[2,4,6,8,10,12,-1,14,16,18,-1,20,22,24,26,28,-1,-1,-1,-1,30,-1,-1,-1,-1,-1,-1,-1,-1,-1,-1],"split_conditions":[5.15E-1,7.9549E0,8.71E-1,4.45E-1,4.13E-1,5.2873E0,-1.6123545E-1,5.4159E0,5.04E-1,3.2E1,4.016777E-2,5.44E-1,5.2E-1,5.2311E0,7.3172E0,4.49E-1,-6.9776915E-2,-0E0,-2.3931514E-3,1.3772966E-1,6.55E-1,-0E0,-7.5306974E-2,-7.2264276E-3,-0E0,-1.648711E-1,-0E0,-0E0,2.731585E-4,-0E0,9.031603E-2],"split_indices":[4,7,4,4,4,7,0,7,4,6,0,4,4,7,7,4,0,0,0,0,4,0,0,0,0,0,0,0,0,0,0],"split_type":[0,0,0,0,0,0,0,0,0,0,0,0,0,0,0,0,0,0,0,0,0,0,0,0,0,0,0,0,0,0,0],"sum_hessian":[7.59E2,5.38E2,2.21E2,1.45E2,3.93E2,2.09E2,1.2E1,5.7E1,8.8E1,3.79E2,1.4E1,2.03E2,6E0,1.9E1,3.8E1,6.7E1,2.1E1,2E0,3.77E2,3.6E1,1.67E2,1E0,5E0,1.1E1,8E0,2.8E1,1E1,1.7E1,5E1,9.4E1,7.3E1],"tree_param":{"num_deleted":"0","num_feature":"10","num_nodes":"31","size_leaf_vector":"1"}},{"base_weights":[-3.5211577E-3,-1.5903425E-1,8.8278286E-2,1.1320468E-2,-8.596393E-1,-7.491882E-2,1.065641E0,-2.1381557E0,-4.1625977E-1,-4.0268978E-1,-0E0,1.1357597E-1,-0E0,-2.190702E-1,-0E0,-0E0,-4.6715954E-1,-0E0,-1.0401263E-1,-1.0435998E-3,1.8947E-2,-5.7209857E-2,-0E0],"categories":[],"categories_nodes":[],"categories_segments":[],"categories_sizes":[],"default_left":[1,1,0,1,0,0,0,0,0,0,1,0,0,0,0,0,0,0,0,0,0,0,0],"id":6,"left_children":[1,3,-1,5,7,9,11,13,15,17,19,-1,-1,-1,-1,-1,21,-1,-1,-1,-1,-1,-1],"loss_changes":[9.7655136E1,8.690677E1,0E0,5.7085617E1,5.2927345E1,1.0977717E1,4.8293457E0,2.0247803E0,3.9000187E0,1.6670795E1,5.076356E-1,0E0,0E0,0E0,0E0,0E0,4.032402E0,0E0,0E0,0E0,0E0,0E0,0E0],"parents":[2147483647,0,0,1,1,3,3,4,4,5,5,6,6,7,7,8,8,9,9,10,10,16,16],"right_children":[2,4,-1,6,8,10,12,14,16,18,20,-1,-1,-1,-1,-1,22,-1,-1,-1,-1,-1,-1],"split_conditions":[2.4E1,5E0,8.8278286E-2,8.08E1,2.3158E0,7.3172E0,4.6947E0,6E0,2.422E0,5.4159E0,1.95E1,1.1357597E-1,-0E0,-2.190702E-1,-0E0,-0E0,6.6115E0,-0E0,-1.0401263E-1,-1.0435998E-3,1.8947E-2,-5.7209857E-2,-0E0],"split_indices":[8,8,0,6,7,7,7,8,7,7,6,0,0,0,0,0,7,0,0,0,0,0,0],"split_type":[0,0,0,0,0,0,0,0,0,0,0,0,0,0,0,0,0,0,0,0,0,0,0],"sum_hessian":[7.59E2,6.56E2,1.03E2,5.17E2,1.39E2,4.7E2,4.7E1,2.9E1,1.1E2,8.3E1,3.87E2,4.5E1,2E0,2.8E1,1E0,5E0,1.05E2,5.6E1,2.7E1,3.75E2,1.2E1,8.2E1,2.3E1],"tree_param":{"num_deleted":"0","num_feature":"10","num_nodes":"23","size_leaf_vector":"1"}},{"base_weights":[-4.0556667E-3,-1.9764484E-1,9.3727596E-2,-7.1934424E-2,-2.4180256E-1,-5.633916E-1,-0E0,-8.567155E-1,-0E0,-3.0143972E-2,2.9577973E-1,-0E0,-8.701507E-2,4.4007383E-2,-2.5463233E-2,-0E0,-5.6579847E-2,7.407942E-2,-0E0],"categories":[],"categories_nodes":[],"categories_segments":[],"categories_sizes":[],"default_left":[1,1,0,0,0,0,1,0,0,1,0,0,0,0,0,0,0,0,0],"id":7,"left_children":[1,3,-1,5,-1,7,9,11,13,15,17,-1,-1,-1,-1,-1,-1,-1,-1],"loss_changes":[1.3128497E2,1.5356644E2,0E0,2.6357489E1,0E0,1.6720425E1,6.8792005E0,7.0448685E-1,3.8783867E0,6.9576797E0,1.4379551E1,0E0,0E0,0E0,0E0,0E0,0E0,0E0,0E0],"parents":[2147483647,0,0,1,1,3,3,5,5,6,6,7,7,8,8,9,9,10,10],"right_children":[2,4,-1,6,-1,8,10,12,14,16,18,-1,-1,-1,-1,-1,-1,-1,-1],"split_conditions":[4.37E2,6.05E-1,9.3727596E-2,4.49E-1,-2.4180256E-1,3.3E2,5.15E-1,3.92E-1,3.37E2,2.96E2,5.44E-1,-0E0,-8.701507E-2,4.4007383E-2,-2.5463233E-2,-0E0,-5.6579847E-2,7.407942E-2,-0E0],"split_indices":[9,4,0,4,0,9,4,4,9,9,4,0,0,0,0,0,0,0,0],"split_type":[0,0,0,0,0,0,0,0,0,0,0,0,0,0,0,0,0,0,0],"sum_hessian":[7.59E2,6.39E2,1.2E2,6.1E2,2.9E1,9.2E1,5.18E2,6.2E1,3E1,4.45E2,7.3E1,1E0,6.1E1,1.3E1,1.7E1,4.23E2,2.2E1,3.7E1,3.6E1],"tree_param":{"num_deleted":"0","num_feature":"10","num_nodes":"19","size_leaf_vector":"1"}},{"base_weights":[-4.795786E-3,-1.319752E-1,7.02528E-2,9.51507E-3,-7.259751E-1,-6.10367E-2,9.099394E-1,-3.6314037E-1,-1.5884048E0,-5.540656E-1,-1.5771413E-2,-0E0,1.07647814E-1,-0E0,-7.897808E-1,-1.746988E-1,-0E0,-0E0,-7.66195E-2,-0E0,-3.0816237E-3,-0E0,-1.53564215E-2,-1.7647028E-1,-0E0],"categories":[],"categories_nodes":[],"categories_segments":[],"categories_sizes":[],"default_left":[1,1,0,1,0,0,0,0,0,0,0,0,0,0,0,0,0,0,0,0,0,0,0,0,0],"id":8,"left_children":[1,3,-1,5,7,9,11,13,15,17,19,-1,-1,21,23,-1,-1,-1,-1,-1,-1,-1,-1,-1,-1],"loss_changes":[6.275453E1,6.2389214E1,0E0,4.145131E1,2.3716454E1,4.804243E0,8.1467056E-1,1.3826858E1,8.2990265E0,1.1849489E0,2.980641E-1,0E0,0E0,3.773115E-1,4.667131E1,0E0,0E0,0E0,0E0,0E0,0E0,0E0,0E0,0E0,0E0],"parents":[2147483647,0,0,1,1,3,3,4,4,5,5,6,6,7,7,8,8,9,9,10,10,13,13,14,14],"right_children":[2,4,-1,6,8,10,12,14,16,18,20,-1,-1,22,24,-1,-1,-1,-1,-1,-1,-1,-1,-1,-1],"split_conditions":[2.4E1,5E0,7.02528E-2,8.08E1,9.14E1,3E0,4E0,1.98E0,6E0,1.98E0,2.88E1,-0E0,1.07647814E-1,7E0,7E0,-1.746988E-1,-0E0,-0E0,-7.66195E-2,-0E0,-3.0816237E-3,-0E0,-1.53564215E-2,-1.7647028E-1,-0E0],"split_indices":[8,8,0,6,6,8,8,1,8,1,6,0,0,8,8,0,0,0,0,0,0,0,0,0,0],"split_type":[0,0,0,0,0,0,0,0,0,0,0,0,0,0,0,0,0,0,0,0,0,0,0,0,0],"sum_hessian":[7.59E2,6.56E2,1.03E2,5.17E2,1.39E2,4.7E2,4.7E1,1.07E2,3.2E1,2E1,4.5E2,1.3E1,3.4E1,6.3E1,4.4E1,2.9E1,3E0,8E0,1.2E1,1.9E1,4.31E2,4.8E1,1.5E1,2.3E1,2.1E1],"tree_param":{"num_deleted":"0","num_feature":"10","num_nodes":"25","size_leaf_vector":"1"}},{"base_weights":[-3.8652683E-3,-1.0068142E0,8.961667E-2,-0E0,-1.21393E0,3.2419387E-1,-3.3911873E-2,-0E0,-1.604927E0,4.6067336E-1,-1.4450258E-1,-0E0,-5.724712E-2,-0E0,-9.560681E-3,-0E0,-1.7003398E-1,-0E0,5.831976E-1,-1.5499799E-1,7.71367E-1,-0E0,-4.5721465E-1,9.7227097E-4,-2.3032738E-2,1.2515156E-1,3.7560426E-2,8.079183E-2,-0E0,-0E0,-4.569409E-4,-0E0,-6.673887E-2],"categories":[],"categories_nodes":[],"categories_segments":[],"categories_sizes":[],"default_left":[0,0,0,0,0,0,0,0,0,0,0,0,1,0,0,0,0,0,0,0,0,0,0,0,0,0,0,0,0,0,0,0,0],"id":9,"left_children":[1,3,5,-1,7,9,11,13,15,17,19,-1,21,-1,-1,-1,-1,23,25,-1,27,29,31,-1,-1,-1,-1,-1,-1,-1,-1,-1,-1],"loss_changes":[8.051799E1,1.7826485E1,2.2820997E1,0E0,1.5344765E1,2.017965E1,8.4082305E-1,1.6453189E-1,1.680687E0,1.5809265E1,6.5620026E1,0E0,4.944077E0,0E0,0E0,0E0,0E0,1.3275911E0,8.925335E0,0E0,6.749401E-1,7.788053E-3,1.3005753E0,0E0,0E0,0E0,0E0,0E0,0E0,0E0,0E0,0E0,0E0],"parents":[2147483647,0,0,1,1,2,2,4,4,5,5,6,6,7,7,8,8,9,9,10,10,12,12,17,17,18,18,20,20,21,21,22,22],"right_children":[2,4,6,-1,8,10,12,14,16,18,20,-1,22,-1,-1,-1,-1,24,26,-1,28,30,32,-1,-1,-1,-1,-1,-1,-1,-1,-1,-1],"split_conditions":[4.49E0,6.015E0,1.98E0,-0E0,1.76E1,1.82E1,5.19E0,2.24E0,6.495E0,7.2E0,1.96E1,-0E0,5.889E0,-0E0,-9.560681E-3,-0E0,-1.7003398E-1,6.07E0,9.6E0,-1.5499799E-1,2.79E1,5.627E0,5.96E0,9.7227097E-4,-2.3032738E-2,1.2515156E-1,3.7560426E-2,8.079183E-2,-0E0,-0E0,-4.569409E-4,-0E0,-6.673887E-2],"split_indices":[2,5,1,0,1,2,2,2,5,2,2,0,5,0,0,0,0,2,2,0,2,5,2,0,0,0,0,0,0,0,0,0,0],"split_type":[0,0,0,0,0,0,0,0,0,0,0,0,0,0,0,0,0,0,0,0,0,0,0,0,0,0,0,0,0,0,0,0,0],"sum_hessian":[7.59E2,7.3E1,6.86E2,1.1E1,6.2E1,2.64E2,4.22E2,2.1E1,4.1E1,2.21E2,4.3E1,1.8E1,4.04E2,4E0,1.7E1,4E0,3.7E1,3.7E1,1.84E2,2.1E1,2.2E1,3.75E2,2.9E1,1.3E1,2.4E1,3.1E1,1.53E2,2.1E1,1E0,3E0,3.72E2,1.3E1,1.6E1],"tree_param":{"num_deleted":"0","num_feature":"10","num_nodes":"33","size_leaf_vector":"1"}}]},"name":"gbtree"},"learner_model_param":{"base_score":"1.8502258E1","boost_from_average":"1","num_class":"0","num_feature":"10","num_target":"1"},"objective":{"name":"reg:squarederror","reg_loss_param":{"scale_pos_weight":"1"}}},"version":[2,1,1]}